{
  "vectorizer": {
    "vocabulary": {
      "1": 0,
      "10": 1,
      "15": 2,
      "2": 3,
      "20": 4,
      "24": 5,
      "3": 6,
      "30": 7,
      "4": 8,
      "5": 9,
      "8": 10,
      "a": 11,
      "abort": 12,
      "an": 13,
      "analyze": 14,
      "api": 15,
      "archive": 16,
      "asap": 17,
      "auth": 18,
      "away": 19,
      "backup": 20,
      "backups": 21,
      "boss": 22,
      "breach": 23,
      "call": 24,
      "certificate": 25,
      "check": 26,
      "checkout": 27,
      "clean": 28,
      "client": 29,
      "config": 30,
      "consumption": 31,
      "cpu": 32,
      "crash": 33,
      "critical": 34,
      "database": 35,
      "day": 36,
      "delete": 37,
      "designer": 38,
      "developer": 39,
      "directory": 40,
      "disk": 41,
      "don": 42,
      "downloads": 43,
      "email": 44,
      "emergency": 45,
      "evaluate": 46,
      "evening": 47,
      "files": 48,
      "fix": 49,
      "folder": 50,
      "forget": 51,
      "friend": 52,
      "gateway": 53,
      "goal": 54,
      "half": 55,
      "hour": 56,
      "hours": 57,
      "hrs": 58,
      "i": 59,
      "immediately": 60,
      "in": 61,
      "indexes": 62,
      "inspect": 63,
      "interface": 64,
      "issue": 65,
      "john": 66,
      "kill": 67,
      "later": 68,
      "latest": 69,
      "leak": 70,
      "log": 71,
      "login": 72,
      "logs": 73,
      "manager": 74,
      "me": 75,
      "meeting": 76,
      "memory": 77,
      "message": 78,
      "mins": 79,
      "minutes": 80,
      "mom": 81,
      "monday": 82,
      "morning": 83,
      "need": 84,
      "network": 85,
      "next": 86,
      "notify": 87,
      "now": 88,
      "old": 89,
      "on": 90,
      "one": 91,
      "optimize": 92,
      "organize": 93,
      "page": 94,
      "patch": 95,
      "payment": 96,
      "ping": 97,
      "please": 98,
      "possible": 99,
      "production": 100,
      "profile": 101,
      "query": 102,
      "reboot": 103,
      "recover": 104,
      "refresh": 105,
      "remember": 106,
      "remind": 107,
      "reminder": 108,
      "rescue": 109,
      "response": 110,
      "restart": 111,
      "restore": 112,
      "right": 113,
      "run": 114,
      "sarah": 115,
      "scan": 116,
      "schedule": 117,
      "security": 118,
      "server": 119,
      "set": 120,
      "settings": 121,
      "slack": 122,
      "sort": 123,
      "space": 124,
      "ssl": 125,
      "stat": 126,
      "status": 127,
      "stop": 128,
      "system": 129,
      "t": 130,
      "talk": 131,
      "task": 132,
      "team": 133,
      "temp": 134,
      "test": 135,
      "the": 136,
      "this": 137,
      "to": 138,
      "tomorrow": 139,
      "tonight": 140,
      "two": 141,
      "update": 142,
      "urgently": 143,
      "usage": 144,
      "variables": 145,
      "verify": 146,
      "view": 147,
      "want": 148,
      "week": 149,
      "when": 150,
      "with": 151,
      "workspace": 152
    }
  },
  "weights": {
    "fc1_weight": [
      [
        0.061478421092033386,
        0.022691240534186363,
        0.0532674640417099,
        0.06829848885536194,
        0.1359913945198059,
        -0.21189819276332855,
        0.0072372714057564735,
        0.1624567210674286,
        0.18845577538013458,
        -0.016138281673192978,
        0.27025869488716125,
        -0.03721790760755539,
        -0.090594083070755,
        0.07939979434013367,
        0.1533477008342743,
        0.09402328729629517,
        0.18093009293079376,
        -0.1321943998336792,
        -0.21655988693237305,
        -0.07606495916843414,
        0.10521672666072845,
        0.12795870006084442,
        0.11821213364601135,
        -0.029727688059210777,
        0.15288475155830383,
        0.018965743482112885,
        0.11349321156740189,
        -0.021291738376021385,
        0.23996548354625702,
        0.07008591294288635,
        0.10827960073947906,
        0.08485285192728043,
        0.061013199388980865,
        -0.038364674896001816,
        -0.15024417638778687,
        0.0062117199413478374,
        0.07541333884000778,
        0.14439590275287628,
        0.12086319923400879,
        0.12353526800870895,
        0.16579757630825043,
        0.08181308209896088,
        0.020692341029644012,
        0.08890867233276367,
        0.07767309993505478,
        -0.12879104912281036,
        0.05798471346497536,
        0.12048286944627762,
        0.16870322823524475,
        -0.08106677234172821,
        0.09479168057441711,
        -0.007281852420419455,
        0.29763877391815186,
        -0.038692962378263474,
        -0.04275902360677719,
        0.08586113899946213,
        0.08598549664020538,
        0.034569982439279556,
        0.0906236469745636,
        0.0976041853427887,
        -0.12509040534496307,
        0.2420503944158554,
        0.2407095581293106,
        0.13079577684402466,
        -0.027831001207232475,
        -0.03342597559094429,
        0.10171770304441452,
        -0.1067495122551918,
        -0.03204025328159332,
        -0.028068995103240013,
        -0.08556298166513443,
        0.025268007069826126,
        -0.03362085670232773,
        0.19960631430149078,
        0.08210045099258423,
        0.08457683771848679,
        0.04778016731142998,
        0.04762125387787819,
        0.1537318378686905,
        0.05907798185944557,
        0.07942740619182587,
        0.1391051709651947,
        0.14707209169864655,
        0.05152861773967743,
        0.042808495461940765,
        -0.027832377701997757,
        0.11376342922449112,
        -0.0044145965948700905,
        -0.1426544040441513,
        0.1907547116279602,
        0.03487864136695862,
        0.06251618266105652,
        0.14978837966918945,
        0.18566210567951202,
        -0.021379869431257248,
        -0.09499964863061905,
        -0.03869205340743065,
        0.11392194777727127,
        0.02832738123834133,
        -0.03510209545493126,
        -0.03902997076511383,
        0.17057105898857117,
        0.051779717206954956,
        -0.1090884581208229,
        -0.11958566308021545,
        0.159132719039917,
        -0.0008079884573817253,
        0.04809530824422836,
        0.013848631642758846,
        -0.10187625885009766,
        0.10773973912000656,
        -0.10363321006298065,
        -0.09818974137306213,
        -0.07637409120798111,
        0.04218379408121109,
        0.13754799962043762,
        0.07229836285114288,
        0.09750895947217941,
        -0.029727714136242867,
        0.039269380271434784,
        -0.049974098801612854,
        0.13272354006767273,
        0.06737664341926575,
        0.18456843495368958,
        0.11508259177207947,
        0.026838459074497223,
        -0.13055294752120972,
        0.09012238681316376,
        -0.09397406131029129,
        0.21486808359622955,
        0.025887001305818558,
        0.1180676594376564,
        -0.006088884547352791,
        0.04772835969924927,
        0.16688819229602814,
        0.10433943569660187,
        0.006580723915249109,
        0.13488063216209412,
        0.009782141074538231,
        0.09388403594493866,
        0.2309202253818512,
        0.0515323132276535,
        0.2160968780517578,
        -0.10817625373601913,
        0.04791291430592537,
        0.11868637055158615,
        0.167957603931427,
        0.08165247738361359,
        9.783617133507505e-05,
        0.06706523895263672,
        -0.012027613818645477,
        0.0945301502943039,
        0.21006663143634796
      ],
      [
        -0.006946728099137545,
        0.19362685084342957,
        -0.14792482554912567,
        -0.05823822319507599,
        0.01915566623210907,
        -0.1805858016014099,
        -0.09598508477210999,
        -0.22985033690929413,
        0.21000993251800537,
        0.07361949980258942,
        -0.05731779709458351,
        0.096302330493927,
        0.36250126361846924,
        0.12290920317173004,
        -0.42116105556488037,
        -0.19451843202114105,
        1.2978029251098633,
        -0.21528536081314087,
        -0.11769744008779526,
        -0.13123011589050293,
        -0.043867163360118866,
        0.5920226573944092,
        -0.18198402225971222,
        0.15236252546310425,
        -0.3193345069885254,
        -0.1812669336795807,
        -0.1568937450647354,
        -0.11117663979530334,
        0.6404704451560974,
        0.04084660857915878,
        -0.3154202103614807,
        0.036647211760282516,
        -0.10234488546848297,
        -0.44492191076278687,
        0.20021721720695496,
        -0.5944565534591675,
        -0.9842304587364197,
        0.5343165993690491,
        0.0784788578748703,
        -0.38737139105796814,
        0.4537007510662079,
        -0.2398432344198227,
        -0.04899093136191368,
        -0.5588464736938477,
        -0.233232319355011,
        -0.01685592345893383,
        0.28404584527015686,
        -0.17922472953796387,
        0.5584837198257446,
        -0.29693007469177246,
        -0.5582624077796936,
        -0.04898867383599281,
        -0.1605408638715744,
        0.13152733445167542,
        0.08221269398927689,
        0.1231837123632431,
        0.30179744958877563,
        -0.14152434468269348,
        0.09983136504888535,
        0.025672120973467827,
        -0.24557508528232574,
        -0.11113208532333374,
        -0.367531418800354,
        -0.0019933918956667185,
        0.13900648057460785,
        0.0960099995136261,
        0.19696186482906342,
        -0.4744671881198883,
        -0.013769593089818954,
        0.05352367088198662,
        -0.10840138792991638,
        0.36725354194641113,
        0.09671149402856827,
        -0.2832397520542145,
        -0.15840105712413788,
        -0.006428441498428583,
        0.14389310777187347,
        -0.05617458373308182,
        0.4611242711544037,
        -0.2614525854587555,
        0.0934261605143547,
        0.05683436617255211,
        0.43934112787246704,
        -0.22878827154636383,
        -0.015963440760970116,
        0.13900652527809143,
        -0.47525838017463684,
        0.18453221023082733,
        0.04749124497175217,
        0.5564242005348206,
        0.13215456902980804,
        0.22066831588745117,
        -0.707942545413971,
        -0.6290926933288574,
        -0.1108454093337059,
        -0.22915324568748474,
        0.13284364342689514,
        -0.3854292035102844,
        -0.26659640669822693,
        0.0018242297228425741,
        -0.04994320124387741,
        0.5190094113349915,
        0.042286649346351624,
        0.17820236086845398,
        0.13867498934268951,
        -0.4749424159526825,
        -0.038947977125644684,
        -2.144239260815084e-05,
        0.021982112899422646,
        0.5102880597114563,
        -0.1944965422153473,
        0.027560696005821228,
        -0.1909102201461792,
        -0.1300278604030609,
        0.13207942247390747,
        -0.15268875658512115,
        0.13208159804344177,
        -0.07910609245300293,
        0.1525135487318039,
        0.19077818095684052,
        0.08513279259204865,
        0.49170055985450745,
        -0.253926545381546,
        -0.7378823161125183,
        -0.23982644081115723,
        -0.18127334117889404,
        -0.4719952940940857,
        0.2847500741481781,
        -0.5567802786827087,
        -0.4481419324874878,
        -0.04899001494050026,
        0.049271609634160995,
        0.06425144523382187,
        0.666497528553009,
        0.4450089931488037,
        0.4831655025482178,
        0.020654482766985893,
        -0.17927749454975128,
        -0.014484838582575321,
        0.6768477559089661,
        -0.11004158854484558,
        0.099823959171772,
        0.24621084332466125,
        0.26377010345458984,
        -0.10524459183216095,
        -0.3154202699661255,
        -0.4603023827075958,
        0.4579232633113861,
        0.08754221349954605,
        -0.2808208763599396,
        -0.0015574484132230282,
        0.14289970695972443,
        0.3477952480316162
      ],
      [
        0.30533018708229065,
        0.19835303723812103,
        -0.5143061280250549,
        -0.39007726311683655,
        0.16160234808921814,
        0.24969106912612915,
        0.6254878640174866,
        0.55026775598526,
        -0.5019623637199402,
        -0.3879879415035248,
        -0.20061637461185455,
        0.0025448868982493877,
        -0.5357255935668945,
        -0.07351537048816681,
        0.016081012785434723,
        0.2138902097940445,
        0.24213571846485138,
        0.36655986309051514,
        0.3955976665019989,
        0.2982746660709381,
        -0.07972324639558792,
        -0.2646366059780121,
        0.4770537316799164,
        0.14371147751808167,
        0.2829342782497406,
        -0.06554059684276581,
        0.33098870515823364,
        0.02925424464046955,
        -0.1615162491798401,
        0.07051634788513184,
        -0.36324790120124817,
        0.12497944384813309,
        0.18147823214530945,
        0.06751634180545807,
        0.2652917504310608,
        0.6740760803222656,
        -0.8026308417320251,
        -0.9602276086807251,
        -0.22996963560581207,
        -0.333212286233902,
        0.6825735569000244,
        -0.3984493613243103,
        -0.031196650117635727,
        0.528397798538208,
        0.40465039014816284,
        0.19805963337421417,
        0.9459961652755737,
        -0.03284241631627083,
        0.30565232038497925,
        0.4192385971546173,
        0.5284108519554138,
        -0.031512510031461716,
        0.16135653853416443,
        -0.2630061209201813,
        -0.030477160587906837,
        -0.07351450622081757,
        0.32530033588409424,
        -0.04529482498764992,
        0.07871770113706589,
        -0.09623114764690399,
        0.06525503844022751,
        -0.03678179159760475,
        0.22993065416812897,
        0.04049207642674446,
        0.10029280185699463,
        0.2847643494606018,
        0.4580066502094269,
        0.08412538468837738,
        0.038745101541280746,
        -0.1004784032702446,
        -0.48035356402397156,
        0.36331963539123535,
        0.26467931270599365,
        -0.3095354735851288,
        -0.02385292947292328,
        0.01629527285695076,
        -0.14356254041194916,
        -0.3438758850097656,
        0.19851316511631012,
        -0.34443482756614685,
        0.2563132643699646,
        -0.2671734392642975,
        0.3427753448486328,
        -0.24005438387393951,
        0.08991901576519012,
        0.11042532324790955,
        -0.2119465470314026,
        -0.09997622668743134,
        -0.6998345851898193,
        -0.2769145369529724,
        -0.2549561560153961,
        0.13026081025600433,
        0.5751932263374329,
        -1.264507532119751,
        0.010977763682603836,
        -0.034225739538669586,
        -0.26319950819015503,
        -0.3466513752937317,
        -0.05630224943161011,
        0.037988338619470596,
        -0.1330074816942215,
        -0.4329199492931366,
        -0.4904560446739197,
        0.5415576696395874,
        -0.40628406405448914,
        0.5486150979995728,
        0.10165967047214508,
        -0.027708958834409714,
        0.27831724286079407,
        0.6875951886177063,
        0.20224830508232117,
        0.03174717724323273,
        0.07007186859846115,
        0.2611338198184967,
        -0.2549552917480469,
        -0.13669772446155548,
        -0.2549557387828827,
        -0.2052357792854309,
        0.10505890846252441,
        -0.4147805869579315,
        -0.0340646468102932,
        -0.4480343759059906,
        -0.17986689507961273,
        -0.4206988513469696,
        -0.3984490931034088,
        -0.06554081290960312,
        0.2653587758541107,
        -0.37180355191230774,
        -0.297227680683136,
        0.08633870631456375,
        -0.032298743724823,
        -0.31443601846694946,
        0.2332473248243332,
        -0.479226678609848,
        0.6826027035713196,
        -0.3384804129600525,
        -0.0344669446349144,
        -0.03284241631627083,
        -0.0063341958448290825,
        -0.08748995512723923,
        -0.34666839241981506,
        0.07871773093938828,
        0.7365140318870544,
        -0.15036439895629883,
        0.179350346326828,
        -0.3503183126449585,
        -0.15862280130386353,
        0.02258015237748623,
        -0.18647772073745728,
        -0.0742354542016983,
        0.06368488073348999,
        -0.14356254041194916,
        -0.09197354316711426
      ],
      [
        0.03415730968117714,
        -0.05611017346382141,
        -0.04174046218395233,
        0.001110851764678955,
        -0.03681239113211632,
        0.015663322061300278,
        0.09925819933414459,
        0.04059985280036926,
        0.0385073721408844,
        -0.1674191802740097,
        0.11736729741096497,
        -0.03158922865986824,
        -0.08215023577213287,
        0.005326924379914999,
        0.013454504311084747,
        -0.014867148362100124,
        0.25356820225715637,
        -0.11486659198999405,
        -0.18575184047222137,
        -0.06921758502721786,
        0.09550858289003372,
        0.22858528792858124,
        0.08867327868938446,
        -0.007503134664148092,
        0.05481614172458649,
        -0.01799255609512329,
        -0.015653228387236595,
        -0.00046091756667010486,
        0.18051259219646454,
        0.09562250226736069,
        0.20578162372112274,
        0.06513970345258713,
        0.0643576979637146,
        -0.014655127190053463,
        -0.15772971510887146,
        0.05294165015220642,
        0.015464800409972668,
        0.21388259530067444,
        0.12494553625583649,
        0.0730157196521759,
        0.11690449714660645,
        -0.06063060462474823,
        0.013998000882565975,
        0.156333789229393,
        0.0958193689584732,
        -0.10009964555501938,
        0.0598808228969574,
        0.14289775490760803,
        0.12069948017597198,
        -0.07516433298587799,
        0.12085180729627609,
        0.04845123365521431,
        -0.028336061164736748,
        -0.013808687217533588,
        -0.004532904829829931,
        0.010091761127114296,
        0.04223785921931267,
        0.1132182702422142,
        0.07560833543539047,
        -0.019841548055410385,
        -0.1195395365357399,
        0.054606735706329346,
        0.3517901301383972,
        -0.09454167634248734,
        -0.007324086502194405,
        -0.00944775715470314,
        0.11920227110385895,
        -0.08005902916193008,
        -0.0003679263754747808,
        -0.16514241695404053,
        -0.03233686462044716,
        -0.1111350804567337,
        -0.009448113851249218,
        0.16210488975048065,
        0.1930168867111206,
        0.02789267897605896,
        0.05307513475418091,
        0.03437359258532524,
        0.047428280115127563,
        -0.14713065326213837,
        -0.05418962240219116,
        0.023367878049612045,
        0.20817984640598297,
        0.11796654760837555,
        -0.021415142342448235,
        -0.007323904894292355,
        0.1457677185535431,
        0.10635493695735931,
        -0.14455193281173706,
        0.16467030346393585,
        0.03397611901164055,
        -0.0012954953126609325,
        0.3442343771457672,
        0.1775682270526886,
        -0.00026353445718996227,
        -0.07475262135267258,
        -0.013669666834175587,
        -0.033711086958646774,
        0.019744716584682465,
        0.03375630080699921,
        -0.0344788134098053,
        0.14876888692378998,
        0.04438778758049011,
        -0.0827852338552475,
        -0.11915808171033859,
        0.2030702829360962,
        0.01045571081340313,
        -0.013090302236378193,
        -0.0035924490075558424,
        -0.09831865131855011,
        -0.01913052797317505,
        -0.1031060516834259,
        -0.073569655418396,
        -0.06841986626386642,
        0.04931515455245972,
        0.011613920331001282,
        0.07077182084321976,
        0.04338591918349266,
        -0.008168334141373634,
        0.04181811213493347,
        -0.017118828371167183,
        0.1508030891418457,
        0.05456124246120453,
        0.22628135979175568,
        -0.06514027714729309,
        -0.02871222235262394,
        -0.12320663034915924,
        0.05567767843604088,
        -0.12382996827363968,
        0.18155072629451752,
        0.017952751368284225,
        0.08270397782325745,
        -1.0235904483124614e-05,
        0.2423047423362732,
        0.13715894520282745,
        0.1032254695892334,
        -0.0480211041867733,
        0.1132182627916336,
        -0.027058599516749382,
        0.08424035459756851,
        0.24418869614601135,
        0.10380041599273682,
        0.12209249287843704,
        -0.08674270659685135,
        0.06466361880302429,
        0.18105822801589966,
        -0.014219745993614197,
        0.025102524086833,
        -0.02260373719036579,
        0.09305461496114731,
        -0.03185473382472992,
        0.05210195854306221,
        0.26695993542671204
      ],
      [
        -0.20106935501098633,
        0.21277374029159546,
        -0.5908693075180054,
        0.3001713752746582,
        0.30237895250320435,
        0.052296970039606094,
        0.17175212502479553,
        -0.37442344427108765,
        -0.6613399982452393,
        0.2775495946407318,
        0.041951198130846024,
        0.01857120357453823,
        0.09351250529289246,
        0.10604198276996613,
        -0.0893968939781189,
        0.13965025544166565,
        0.19349674880504608,
        0.13130903244018555,
        0.2741536498069763,
        0.11638280004262924,
        0.028920922428369522,
        -0.1469254046678543,
        -0.2819746434688568,
        0.0889555886387825,
        0.0024009067565202713,
        0.13927069306373596,
        -0.1556239128112793,
        0.06892206519842148,
        -0.11442232131958008,
        -0.5803768038749695,
        -0.017836058512330055,
        0.28009000420570374,
        -0.23122233152389526,
        0.08876261860132217,
        0.22305354475975037,
        0.07525598257780075,
        -0.2585424780845642,
        -0.028956729918718338,
        -0.11170106381177902,
        -0.5498034954071045,
        0.16162434220314026,
        0.025185519829392433,
        0.11305001378059387,
        0.29095354676246643,
        -0.3442875146865845,
        0.18172746896743774,
        -0.13385307788848877,
        -0.040119193494319916,
        0.15921679139137268,
        0.12615594267845154,
        0.29120349884033203,
        0.11318069696426392,
        -0.2230798453092575,
        0.13544203341007233,
        0.010037208907306194,
        0.10598994791507721,
        -0.21328510344028473,
        0.06707281619310379,
        -0.08437804877758026,
        0.06146350875496864,
        0.10365064442157745,
        -0.023027900606393814,
        -0.11410780251026154,
        -0.1425931751728058,
        0.06781721115112305,
        0.052331969141960144,
        0.15814891457557678,
        0.07339511066675186,
        0.0068312110379338264,
        -0.016989216208457947,
        0.02822027914226055,
        0.0105748875066638,
        0.053729329258203506,
        -0.4798375964164734,
        0.25538909435272217,
        0.027495592832565308,
        0.30854567885398865,
        0.3217243254184723,
        0.21979106962680817,
        0.03128786385059357,
        -0.04540963098406792,
        0.0334971658885479,
        0.039234183728694916,
        0.279585599899292,
        -0.05595233291387558,
        0.06787170469760895,
        0.03214405104517937,
        -0.7003161907196045,
        0.2373107522726059,
        -0.14668747782707214,
        0.038804467767477036,
        -0.2678610384464264,
        -0.0017358589684590697,
        -0.3855014145374298,
        0.06833859533071518,
        0.0892859622836113,
        0.12783323228359222,
        0.3498955965042114,
        0.16064827144145966,
        -0.03161292150616646,
        0.25826528668403625,
        0.09296242892742157,
        -0.025367487221956253,
        0.16031727194786072,
        0.18852637708187103,
        -0.2162254899740219,
        0.005050278268754482,
        0.027567856013774872,
        -0.21014903485774994,
        0.24306751787662506,
        0.13916602730751038,
        0.16732008755207062,
        0.06496937572956085,
        0.11627539992332458,
        0.038825880736112595,
        0.06783876568078995,
        0.03837888315320015,
        0.26639991998672485,
        0.08913640677928925,
        -0.024721700698137283,
        0.040974583476781845,
        0.08908622711896896,
        -0.03824285417795181,
        0.10622082650661469,
        0.009041793644428253,
        0.13875995576381683,
        0.08911286294460297,
        -0.27880799770355225,
        0.05446565896272659,
        -0.22671820223331451,
        0.11310289055109024,
        0.1915387511253357,
        0.0719638466835022,
        0.34392914175987244,
        0.1550421267747879,
        0.21102699637413025,
        0.0940522849559784,
        -0.041001878678798676,
        -0.018818136304616928,
        0.13571549952030182,
        -0.1979849487543106,
        -0.08437443524599075,
        0.1975955367088318,
        0.1800473928451538,
        -0.23087559640407562,
        -0.007563852705061436,
        -0.5085453987121582,
        0.28321585059165955,
        0.06490297615528107,
        0.5605162382125854,
        -0.030948830768465996,
        0.34103113412857056,
        0.1622915267944336
      ],
      [
        -0.06301382184028625,
        -0.17100951075553894,
        0.14638397097587585,
        -0.005480904597789049,
        -0.031121235340833664,
        -0.05331886559724808,
        0.12887389957904816,
        0.029750656336545944,
        -0.023055557161569595,
        -0.18301227688789368,
        0.09490738809108734,
        0.002535013947635889,
        -0.07926341891288757,
        -9.35439602471888e-05,
        0.10426993668079376,
        -0.14977647364139557,
        0.300515353679657,
        -0.11515460163354874,
        -0.22418718039989471,
        -0.09486234188079834,
        0.13770322501659393,
        0.08717656135559082,
        0.04739497974514961,
        -0.018221838399767876,
        -0.077659972012043,
        0.07691686600446701,
        -0.05721624568104744,
        -0.012691795825958252,
        0.23562951385974884,
        0.07909052073955536,
        0.15700088441371918,
        0.1406751573085785,
        0.013033035211265087,
        -0.04345225170254707,
        -0.1526707112789154,
        0.0016329872887581587,
        -0.1035466343164444,
        0.21498286724090576,
        0.006767169572412968,
        0.0009227278642356396,
        0.17693375051021576,
        0.02513984777033329,
        -0.030524585396051407,
        0.23822221159934998,
        0.04793094843626022,
        -0.13506600260734558,
        0.10081170499324799,
        0.08918233215808868,
        0.03802582249045372,
        -0.06582549959421158,
        0.24150313436985016,
        -0.017248142510652542,
        -0.1129007413983345,
        -0.013964477926492691,
        -0.047815416008234024,
        -0.018407734110951424,
        -0.06479235738515854,
        0.06369883567094803,
        0.03379059210419655,
        -0.03948579356074333,
        -0.09521348774433136,
        0.046243082731962204,
        0.2818644940853119,
        -0.1198105588555336,
        -0.04163501411676407,
        -0.053906045854091644,
        0.09521660953760147,
        -0.08910350501537323,
        -0.023733697831630707,
        -0.25001639127731323,
        -0.044854503124952316,
        -0.1901409775018692,
        -0.05389625206589699,
        0.027850300073623657,
        0.16917599737644196,
        -0.12059590220451355,
        0.07660159468650818,
        0.09533824771642685,
        -0.027803637087345123,
        -0.113914355635643,
        -0.06643643975257874,
        -0.014213725924491882,
        0.12835092842578888,
        0.061000071465969086,
        0.005838157143443823,
        -0.04170062392950058,
        0.018846243619918823,
        0.13852699100971222,
        -0.0631941705942154,
        0.13266992568969727,
        -0.008510791696608067,
        0.03677447885274887,
        0.15720216929912567,
        0.2117820680141449,
        -0.012691237032413483,
        -0.07796700298786163,
        -0.01396434661000967,
        -0.03299645707011223,
        -0.15234753489494324,
        -0.04669021815061569,
        -0.01887972094118595,
        0.24945294857025146,
        0.21251721680164337,
        -0.10281982272863388,
        -0.08074409514665604,
        0.10972806066274643,
        -0.030314970761537552,
        -0.1275799721479416,
        -0.032313041388988495,
        -0.11330367624759674,
        -0.15407514572143555,
        -0.1111815944314003,
        -0.09362289309501648,
        -0.09446719288825989,
        -0.016253676265478134,
        0.08434659987688065,
        -0.020722366869449615,
        0.06399166584014893,
        -0.01818636618554592,
        0.002421174431219697,
        -0.03488987684249878,
        0.247666597366333,
        -0.03519529104232788,
        0.2692529857158661,
        -0.018309466540813446,
        0.05862801894545555,
        -0.14533862471580505,
        0.023587126284837723,
        -0.06860828399658203,
        0.20792074501514435,
        -0.035606931895017624,
        0.11720986664295197,
        -0.025402138009667397,
        0.2515089511871338,
        0.18411922454833984,
        -0.009673706255853176,
        -0.1361290067434311,
        0.0994831845164299,
        0.0019479969050735235,
        -0.0033067420590668917,
        0.22278237342834473,
        0.07303571701049805,
        0.31255489587783813,
        -0.08965709805488586,
        0.02118973433971405,
        0.14214742183685303,
        -0.16543680429458618,
        -0.02241397835314274,
        0.04580925405025482,
        0.18378028273582458,
        0.004881689324975014,
        0.04490325599908829,
        0.3450767397880554
      ],
      [
        0.002695994218811393,
        -0.014477591030299664,
        -0.02729238010942936,
        0.06284420192241669,
        0.042888280004262924,
        -0.16418686509132385,
        -0.01828465797007084,
        -0.1863877922296524,
        0.10355314612388611,
        -0.03785574436187744,
        0.2225477397441864,
        -0.22191676497459412,
        -0.10156846046447754,
        0.10707572847604752,
        0.18529635667800903,
        0.01562643237411976,
        0.20787765085697174,
        -0.13788118958473206,
        -0.16975897550582886,
        -0.0942416787147522,
        0.1784507930278778,
        0.20140716433525085,
        0.10904904454946518,
        -0.04294457286596298,
        0.08443833142518997,
        -0.018384207040071487,
        0.0687531977891922,
        -0.017925824970006943,
        0.2804067134857178,
        0.10362093895673752,
        0.21593280136585236,
        0.11163728684186935,
        0.1897292286157608,
        -0.041198037564754486,
        -0.15125985443592072,
        0.04722760245203972,
        -0.02045580744743347,
        0.2001512199640274,
        0.07367357611656189,
        0.11116630584001541,
        0.1358986645936966,
        -0.11787806451320648,
        0.005921958014369011,
        0.033836595714092255,
        0.10441939532756805,
        -0.13950158655643463,
        -0.26028376817703247,
        0.1378028839826584,
        0.18862442672252655,
        -0.08661839365959167,
        0.08852820098400116,
        0.03651123866438866,
        0.1753472238779068,
        -0.030196983367204666,
        0.0014753184514120221,
        0.08945133537054062,
        0.10631142556667328,
        0.021896187216043472,
        0.05879124626517296,
        -0.0495934896171093,
        -0.16222761571407318,
        0.0551588349044323,
        0.4193848669528961,
        -0.1534186750650406,
        -0.029444275423884392,
        -0.032933659851551056,
        0.12017019838094711,
        -0.11594072729349136,
        0.004643307067453861,
        -0.11227855831384659,
        -0.0655287429690361,
        -0.04080729931592941,
        -0.03293309360742569,
        0.13322065770626068,
        0.12237812578678131,
        -0.038992710411548615,
        0.028984813019633293,
        0.039241012185811996,
        0.003711629891768098,
        -0.03191618621349335,
        -0.11529255658388138,
        0.13603825867176056,
        0.14823882281780243,
        0.1392822414636612,
        0.026505671441555023,
        -0.02944435365498066,
        -0.05208056792616844,
        0.034356359392404556,
        -0.18446964025497437,
        0.2049253135919571,
        0.0387350432574749,
        0.07541397213935852,
        0.407779723405838,
        0.11668693274259567,
        -0.017914099618792534,
        -0.10098043829202652,
        -0.03028469905257225,
        0.2655620574951172,
        0.04766702651977539,
        -0.02733606845140457,
        -1.6801564925117418e-05,
        0.13093945384025574,
        0.03887747600674629,
        -0.08189605921506882,
        -0.12660638988018036,
        0.23003195226192474,
        -0.042836401611566544,
        -0.03162657842040062,
        -0.09311031550168991,
        -0.12342693656682968,
        0.014297441579401493,
        -0.12314148992300034,
        -0.07283540815114975,
        -0.09415309876203537,
        0.031102363020181656,
        0.07547742128372192,
        0.045393139123916626,
        -0.11678590625524521,
        -0.04294327273964882,
        -0.18608757853507996,
        -0.01602279767394066,
        0.13958828151226044,
        0.12992067635059357,
        0.10005869716405869,
        -0.12484254688024521,
        0.01295162457972765,
        -0.09863676875829697,
        -0.1551024466753006,
        -0.15294508635997772,
        0.12093890458345413,
        0.02816389501094818,
        0.02010396495461464,
        -0.06541526317596436,
        0.13725559413433075,
        0.12788236141204834,
        0.04275883734226227,
        -0.062243882566690445,
        0.14050611853599548,
        -0.14856354892253876,
        0.008043836802244186,
        0.33927762508392334,
        0.052461300045251846,
        -0.10234862565994263,
        -0.1234474703669548,
        0.2023317664861679,
        0.21316565573215485,
        0.11064691841602325,
        -0.07916112244129181,
        -0.09185434877872467,
        -0.08159992843866348,
        -0.04863513261079788,
        0.07771223038434982,
        0.22234420478343964
      ],
      [
        -0.04789317026734352,
        -0.05798075720667839,
        0.24598078429698944,
        -0.1637706756591797,
        0.005600194912403822,
        -0.03152833133935928,
        0.05768177658319473,
        -0.03421863913536072,
        -0.0028885698411613703,
        -0.29165491461753845,
        0.01044384390115738,
        0.03841262310743332,
        0.36735424399375916,
        -0.012035299092531204,
        -0.08264216780662537,
        -0.03654073551297188,
        0.4528184235095978,
        -0.022930584847927094,
        -0.17641213536262512,
        -0.1717633306980133,
        0.0039826189167797565,
        0.16597457230091095,
        -0.09594064950942993,
        -0.14142651855945587,
        -0.15374046564102173,
        0.06293335556983948,
        0.11319117993116379,
        -0.12210677564144135,
        0.14933179318904877,
        0.018786955624818802,
        0.2576577961444855,
        0.138894721865654,
        0.06801455467939377,
        0.08157563954591751,
        -0.17998825013637543,
        0.20483914017677307,
        -0.03774435073137283,
        0.255403071641922,
        0.021390629932284355,
        0.0850231871008873,
        0.3358044922351837,
        0.05287162587046623,
        -0.011794531717896461,
        0.12877431511878967,
        0.04992792755365372,
        -0.02905382215976715,
        0.13929757475852966,
        0.07466132938861847,
        0.05673647299408913,
        0.11892613023519516,
        0.0956711396574974,
        -0.002901983680203557,
        0.07280352711677551,
        -0.22305698692798615,
        0.0009357052040286362,
        -0.014745109714567661,
        -0.09724176675081253,
        -0.1330690234899521,
        0.0009541764156892896,
        -0.010804497636854649,
        -0.161306232213974,
        -0.037240609526634216,
        0.1769527941942215,
        -0.007702421396970749,
        -0.16027827560901642,
        -0.04076559469103813,
        -0.13661852478981018,
        0.14655733108520508,
        -0.06270060688257217,
        -0.25662142038345337,
        0.03885958716273308,
        -0.28054317831993103,
        -0.04171811789274216,
        0.0712953582406044,
        0.07807015627622604,
        -0.023283550515770912,
        -0.0077196224592626095,
        0.19841451942920685,
        0.12806981801986694,
        0.06442080438137054,
        -0.1756129264831543,
        -0.15949678421020508,
        0.20098169147968292,
        0.3436538577079773,
        0.006290108431130648,
        -0.16013263165950775,
        0.12527626752853394,
        0.12639006972312927,
        0.00534114520996809,
        0.2068549394607544,
        -0.031640660017728806,
        -0.048355672508478165,
        0.3599400222301483,
        0.14099858701229095,
        -0.12331331521272659,
        -0.2478458434343338,
        -0.2234572470188141,
        -0.24364155530929565,
        -0.055773984640836716,
        -0.041751306504011154,
        0.09972113370895386,
        0.227291077375412,
        0.04559190943837166,
        0.06432291865348816,
        -0.1124752014875412,
        0.11160996556282043,
        0.009760180488228798,
        -0.07877020537853241,
        -0.0668153464794159,
        -0.4101184010505676,
        -0.05540919676423073,
        -0.22102323174476624,
        -0.1935272365808487,
        -0.16019295156002045,
        -0.023543111979961395,
        0.17578169703483582,
        -0.022530095651745796,
        0.022432610392570496,
        -0.14119486510753632,
        0.20533719658851624,
        -0.0317390002310276,
        0.29104119539260864,
        -0.17600588500499725,
        0.30230626463890076,
        0.043461594730615616,
        0.07086752355098724,
        -0.1484047770500183,
        0.06592858582735062,
        -0.2843239903450012,
        0.21060270071029663,
        0.0010681530693545938,
        0.15454383194446564,
        -0.043286118656396866,
        -0.034438829869031906,
        0.2680034339427948,
        0.043962348252534866,
        -0.06860609352588654,
        0.10617894679307938,
        -0.01576942577958107,
        0.3424646258354187,
        0.16920655965805054,
        0.0002891180047299713,
        0.387499064207077,
        -0.0180423092097044,
        0.08491843193769455,
        0.22201818227767944,
        -0.25317680835723877,
        0.04122820124030113,
        0.034102655947208405,
        0.32272231578826904,
        0.026451624929904938,
        -0.010594145394861698,
        0.4260684847831726
      ],
      [
        0.03368064761161804,
        -0.12294802814722061,
        0.18019115924835205,
        0.041054077446460724,
        0.12424924969673157,
        -0.01720678247511387,
        0.04617634043097496,
        -0.020254243165254593,
        0.0758642628788948,
        -0.14871080219745636,
        0.14000479876995087,
        -0.0183478444814682,
        0.08106914907693863,
        -0.11231249570846558,
        -0.19677487015724182,
        0.09813762456178665,
        0.3263736069202423,
        -0.10453098267316818,
        -0.16310223937034607,
        -0.07748298346996307,
        0.07654504477977753,
        0.215464785695076,
        -0.02764323353767395,
        -0.049792367964982986,
        0.013225091621279716,
        0.0005317354225553572,
        0.15570074319839478,
        -0.07056105136871338,
        0.1575605869293213,
        0.04069177061319351,
        0.18345899879932404,
        0.027883633971214294,
        -0.022782936692237854,
        0.06371951848268509,
        -0.06341587007045746,
        0.057360947132110596,
        0.019550280645489693,
        0.21269460022449493,
        0.0647844672203064,
        0.07610777765512466,
        0.20460514724254608,
        -0.10503184050321579,
        -0.010475353337824345,
        0.16848769783973694,
        -0.022898798808455467,
        -0.048265211284160614,
        -0.1006641685962677,
        0.07371395826339722,
        0.1006501242518425,
        0.08651510626077652,
        0.16466598212718964,
        -0.03771457076072693,
        0.1280888319015503,
        -0.09044020622968674,
        0.050784286111593246,
        -0.11654005199670792,
        -0.02971208095550537,
        0.07455683499574661,
        0.030061496421694756,
        -0.023984191939234734,
        -0.15374664962291718,
        0.08318106830120087,
        0.1705196052789688,
        0.18920059502124786,
        -0.05965596064925194,
        0.032392118126153946,
        0.05511201173067093,
        -0.0589466355741024,
        -0.02948855794966221,
        -0.08210548758506775,
        -0.09537947177886963,
        -0.1789596825838089,
        0.03242872655391693,
        0.222650945186615,
        0.08832916617393494,
        -0.08373399078845978,
        0.04844091087579727,
        -0.0157029889523983,
        0.11452753841876984,
        0.12990109622478485,
        -0.09016899764537811,
        0.07228362560272217,
        0.16218267381191254,
        0.10335631668567657,
        -0.0588948130607605,
        -0.059537678956985474,
        0.17148567736148834,
        0.05031515285372734,
        -0.059911683201789856,
        0.2248166799545288,
        0.0008784173987805843,
        0.0387498214840889,
        0.12101514637470245,
        0.18957574665546417,
        -0.0705610141158104,
        -0.1992897093296051,
        -0.09043926745653152,
        -0.014404850080609322,
        -0.09328712522983551,
        0.06085832417011261,
        -0.03140028566122055,
        0.2525304853916168,
        0.013141041621565819,
        -0.09802765399217606,
        -0.13497351109981537,
        0.1510503739118576,
        -0.016682012006640434,
        -0.03808164596557617,
        -0.03641821816563606,
        -0.017375249415636063,
        0.07030215114355087,
        -0.18038086593151093,
        -0.12311127036809921,
        -0.07752660661935806,
        0.010190686210989952,
        0.08559369295835495,
        0.0005876040668226779,
        0.0644809901714325,
        -0.049929179251194,
        0.09980623424053192,
        0.04320770502090454,
        0.2752774953842163,
        -0.07271301746368408,
        0.35425156354904175,
        -0.0969427227973938,
        0.004034390673041344,
        -0.14019548892974854,
        0.09009591490030289,
        -0.08615180850028992,
        0.2750464081764221,
        -0.010117587633430958,
        0.09309545904397964,
        0.04964242875576019,
        0.08439289778470993,
        0.19416889548301697,
        -0.016367396339774132,
        -0.014546572230756283,
        0.09356723725795746,
        -0.004565063863992691,
        0.14269524812698364,
        0.15835796296596527,
        0.03088959865272045,
        0.4265519678592682,
        -0.09857453405857086,
        -0.049136605113744736,
        0.17279872298240662,
        0.03952156752347946,
        0.07685928791761398,
        0.08083847910165787,
        0.1739698350429535,
        0.030070198699831963,
        0.04643990099430084,
        0.30805498361587524
      ],
      [
        -0.5890198945999146,
        0.09775720536708832,
        0.6522939801216125,
        -0.27984222769737244,
        0.5278554558753967,
        0.35372743010520935,
        -0.7137100100517273,
        0.44117072224617004,
        0.09960795938968658,
        0.13468532264232635,
        -0.2580185532569885,
        -0.256093829870224,
        0.2811928689479828,
        0.27274811267852783,
        -0.0122350063174963,
        0.3454137146472931,
        -0.38162583112716675,
        0.02416164055466652,
        0.09984122216701508,
        0.06088440865278244,
        0.024270551279187202,
        -0.2606954574584961,
        0.04335917532444,
        -0.06896732747554779,
        -0.5364935994148254,
        0.3188377916812897,
        0.2692534029483795,
        0.08484913408756256,
        -0.7116414904594421,
        -0.30768021941185,
        0.22047488391399384,
        0.25406575202941895,
        0.2793771028518677,
        0.12686730921268463,
        0.012901467271149158,
        -0.015605750493705273,
        0.2949599325656891,
        0.357140451669693,
        -0.6513576507568359,
        0.5344672799110413,
        -0.03298407047986984,
        0.16204576194286346,
        0.13971824944019318,
        -0.6912282109260559,
        0.12555867433547974,
        -0.008781418204307556,
        0.48016640543937683,
        0.022265898063778877,
        0.28696325421333313,
        0.07978671789169312,
        -0.7226730585098267,
        0.14481930434703827,
        -0.5144781470298767,
        0.16288618743419647,
        0.09960250556468964,
        0.2732062041759491,
        -0.06661944091320038,
        -0.45057040452957153,
        -0.18950070440769196,
        -0.0749688595533371,
        0.11711744964122772,
        0.6473910212516785,
        -0.621091902256012,
        0.3474157452583313,
        -0.034812889993190765,
        -0.1396370530128479,
        -0.058641161769628525,
        0.2025313675403595,
        0.023232512176036835,
        0.37592440843582153,
        0.07296384871006012,
        0.31166428327560425,
        -0.1537441909313202,
        0.24037285149097443,
        0.3361184597015381,
        -0.10972115397453308,
        -0.39801543951034546,
        0.18546222150325775,
        -0.013109331019222736,
        0.7278257608413696,
        0.5828126668930054,
        -0.8331613540649414,
        -0.1912190169095993,
        0.6107903718948364,
        -0.11079807579517365,
        -0.05017777159810066,
        -0.5579179525375366,
        -0.3232298493385315,
        0.2166624367237091,
        -0.2607039511203766,
        0.10603904724121094,
        0.21709614992141724,
        -0.27972880005836487,
        0.5023355484008789,
        0.07849084585905075,
        0.1267784833908081,
        0.1651834100484848,
        0.28255510330200195,
        -0.01305640209466219,
        8.445771527476609e-05,
        0.02560662291944027,
        0.41845041513442993,
        0.29610204696655273,
        0.07826866954565048,
        0.22187674045562744,
        -0.5463048219680786,
        0.0074232155457139015,
        -0.1375090628862381,
        -0.0033479926642030478,
        -0.2914808690547943,
        0.3459010124206543,
        0.02109467051923275,
        0.03388092666864395,
        0.061629436910152435,
        0.09484130144119263,
        -0.2998209297657013,
        0.11983869969844818,
        0.07208996266126633,
        -0.06903442740440369,
        0.19921818375587463,
        0.09915006905794144,
        0.4185083210468292,
        0.19697050750255585,
        0.46014735102653503,
        0.15333843231201172,
        0.3467802107334137,
        0.10568512976169586,
        0.2116483449935913,
        0.1636953353881836,
        0.09099779278039932,
        0.13246074318885803,
        -0.38812682032585144,
        0.1258130520582199,
        0.2944297790527344,
        -0.032952554523944855,
        0.16731242835521698,
        0.1118651032447815,
        -0.000548548880033195,
        -0.01070872601121664,
        -0.19288909435272217,
        0.14681710302829742,
        -0.1855112910270691,
        -0.465526282787323,
        0.19840453565120697,
        0.2796267569065094,
        0.2203723043203354,
        0.004959562327712774,
        0.30866214632987976,
        0.018897585570812225,
        -0.6113914251327515,
        -0.0006400833372026682,
        -0.3753495216369629,
        0.01892021857202053
      ],
      [
        0.06904108822345734,
        0.03581148386001587,
        -0.23808301985263824,
        0.0010112151503562927,
        -0.015378227457404137,
        -0.1384117603302002,
        0.10767782479524612,
        0.1587538719177246,
        0.14895300567150116,
        -0.05178878828883171,
        0.192747101187706,
        0.003783061169087887,
        -0.09951111674308777,
        0.13639868795871735,
        0.24105201661586761,
        -0.10682566463947296,
        0.17078045010566711,
        -0.1450505405664444,
        -0.18729834258556366,
        -0.08479783684015274,
        0.1612350344657898,
        0.15868106484413147,
        0.14935052394866943,
        -0.016562465578317642,
        0.1473696082830429,
        -0.0061184111982584,
        -0.06552016735076904,
        -3.48042267432902e-05,
        0.2001790702342987,
        0.1241401731967926,
        0.1610766351222992,
        0.07222133874893188,
        0.18462219834327698,
        -0.029693294316530228,
        -0.17800773680210114,
        0.038200266659259796,
        0.019452018663287163,
        0.1696121245622635,
        0.12896648049354553,
        0.1447518914937973,
        0.12008847296237946,
        0.04134398698806763,
        -0.020071987062692642,
        0.06951908022165298,
        0.12791341543197632,
        -0.12103831768035889,
        -0.01299283280968666,
        0.12081173062324524,
        0.12851808965206146,
        -0.07538406550884247,
        0.058012839406728745,
        -0.049081411212682724,
        0.11885251849889755,
        0.02671433985233307,
        -0.04333854094147682,
        0.1421922892332077,
        0.11199946701526642,
        0.18551786243915558,
        0.10028108209371567,
        -0.03891049697995186,
        -0.1374032199382782,
        0.1386335790157318,
        0.35771307349205017,
        -0.033206187188625336,
        -0.0038409384433180094,
        -0.03255753964185715,
        0.13699324429035187,
        -0.10916150361299515,
        0.0744747743010521,
        -0.19979631900787354,
        -0.07059675455093384,
        -0.005174012389034033,
        -0.03255857899785042,
        0.06092111021280289,
        0.08440551906824112,
        0.012828315608203411,
        0.05809619277715683,
        0.06030067428946495,
        0.09703738987445831,
        -0.1172717958688736,
        0.02086087130010128,
        0.09847811609506607,
        0.11263111978769302,
        0.045657072216272354,
        0.019409755244851112,
        -0.003856547875329852,
        0.01449455413967371,
        0.026374438777565956,
        -0.1586284190416336,
        0.18925493955612183,
        -0.047042250633239746,
        0.04090242460370064,
        0.32918402552604675,
        0.1475411206483841,
        -3.0500043067149818e-05,
        -0.09229929745197296,
        0.026701807975769043,
        0.05804411321878433,
        0.071794293820858,
        -0.02473743073642254,
        -0.03579593077301979,
        0.09260661900043488,
        0.03746446222066879,
        -0.08134715259075165,
        -0.12326075881719589,
        0.21555182337760925,
        -0.006802543997764587,
        -0.012005056254565716,
        -0.010689848102629185,
        -0.1059211939573288,
        -0.0818711593747139,
        -0.12118528038263321,
        -0.09724070131778717,
        -0.08448833227157593,
        -0.04235216975212097,
        0.09095319360494614,
        -0.04752899333834648,
        -0.06469164043664932,
        -0.016171304509043694,
        -0.0010527786798775196,
        -0.04721357673406601,
        0.10957903414964676,
        0.16731207072734833,
        0.043434467166662216,
        0.039411429315805435,
        -0.024140730500221252,
        -0.11373462527990341,
        -0.0027555820997804403,
        -0.1390727311372757,
        0.18366119265556335,
        -0.03239957243204117,
        0.10064226388931274,
        -0.006758057978004217,
        0.16066314280033112,
        0.10523804277181625,
        0.14135722815990448,
        -0.006777066271752119,
        0.1459096372127533,
        0.0576578788459301,
        0.08174271136522293,
        0.3198951780796051,
        0.07719480246305466,
        0.008694812655448914,
        -0.11832165718078613,
        0.1850304752588272,
        0.15882518887519836,
        0.1610313206911087,
        0.06863843649625778,
        -0.05386345833539963,
        -0.03320145979523659,
        -0.019299807026982307,
        -0.0013340329751372337,
        0.1716480553150177
      ],
      [
        0.05002162978053093,
        -0.04298319295048714,
        0.06448224186897278,
        0.03867046907544136,
        0.09382219612598419,
        -0.14815697073936462,
        0.05934395641088486,
        0.11693315953016281,
        0.11494413018226624,
        -0.12601818144321442,
        0.172946035861969,
        0.021946299821138382,
        -0.09670642763376236,
        0.004254254512488842,
        0.028767267242074013,
        0.06745076179504395,
        0.23944909870624542,
        -0.14392100274562836,
        -0.21723267436027527,
        -0.07828220725059509,
        0.15454034507274628,
        0.20347608625888824,
        0.09827859699726105,
        -0.03599054366350174,
        0.09157940745353699,
        0.07373789697885513,
        0.11467520892620087,
        -0.03350912407040596,
        0.18003277480602264,
        0.06376823782920837,
        0.1392020881175995,
        0.05696583539247513,
        -0.021856041625142097,
        -0.048418693244457245,
        -0.14311228692531586,
        -0.005515964236110449,
        -0.036241356283426285,
        0.20326770842075348,
        0.0849919244647026,
        0.1318541318178177,
        0.16202621161937714,
        0.038802698254585266,
        -0.022543417289853096,
        0.16571252048015594,
        0.049897316843271255,
        -0.11325160413980484,
        0.07018578797578812,
        0.13870278000831604,
        0.09668127447366714,
        -0.08483375608921051,
        0.1673477590084076,
        -0.014146060682833195,
        0.14330562949180603,
        -0.023818040266633034,
        0.01117584016174078,
        0.05251481011509895,
        0.08083296567201614,
        0.026715949177742004,
        0.043611809611320496,
        0.06424369663000107,
        -0.1306154578924179,
        0.11797107011079788,
        0.2790655195713043,
        0.09390286356210709,
        0.009129215031862259,
        -0.03145836666226387,
        0.08288642764091492,
        -0.10995253920555115,
        0.024171849712729454,
        -0.070628322660923,
        -0.04843514412641525,
        -0.052110083401203156,
        -0.030802138149738312,
        0.20342791080474854,
        0.07644800841808319,
        0.013310620561242104,
        0.04492015019059181,
        0.018567828461527824,
        0.07960101962089539,
        0.04573904350399971,
        0.04286149889230728,
        0.11776042729616165,
        0.10225731879472733,
        -0.020339274778962135,
        -0.03758002817630768,
        0.00968223623931408,
        0.10048220306634903,
        0.09887471795082092,
        -0.14571820199489594,
        0.14660656452178955,
        0.02031281590461731,
        0.037559252232313156,
        0.1429847925901413,
        0.19846107065677643,
        -0.03350764513015747,
        -0.10933621972799301,
        -0.023911314085125923,
        0.04510647431015968,
        -0.011285120621323586,
        0.002705169841647148,
        -0.09027618169784546,
        0.1515292376279831,
        0.045021332800388336,
        -0.09785117954015732,
        -0.09676094353199005,
        0.17747364938259125,
        0.0026532092597335577,
        -0.0375947542488575,
        -0.015503104776144028,
        -0.11067524552345276,
        0.05243895575404167,
        -0.09664671868085861,
        -0.11501089483499527,
        -0.07824237644672394,
        0.012707693502306938,
        0.11943027377128601,
        0.00946339126676321,
        0.0011134137166664004,
        -0.03635789081454277,
        0.042871151119470596,
        0.0017392305890098214,
        0.22329911589622498,
        0.09039955586194992,
        0.19633136689662933,
        0.03944054991006851,
        0.0612306073307991,
        -0.11838062107563019,
        0.06638820469379425,
        -0.12136959284543991,
        0.17240668833255768,
        -0.0031246491707861423,
        0.06469092518091202,
        -0.021711837500333786,
        0.08196846395730972,
        0.16692598164081573,
        0.042520672082901,
        -0.003992275334894657,
        0.13718955218791962,
        -0.030245305970311165,
        -0.0038901802618056536,
        0.2559688985347748,
        0.0881294384598732,
        0.2344038337469101,
        -0.1135469451546669,
        -0.04252835363149643,
        0.14732925593852997,
        0.07725898176431656,
        0.10587745159864426,
        0.04418540000915527,
        0.12178643047809601,
        0.057908736169338226,
        0.02421138621866703,
        0.2279665470123291
      ],
      [
        0.031104302033782005,
        0.021073848009109497,
        0.0862642154097557,
        0.03104972466826439,
        0.05658211186528206,
        -0.11015649884939194,
        0.09638543426990509,
        0.04333379119634628,
        0.14842137694358826,
        -0.19327305257320404,
        0.14872193336486816,
        -0.027215616777539253,
        -0.10495253652334213,
        -0.026510944589972496,
        -0.145841583609581,
        0.038853567093610764,
        0.22215361893177032,
        -0.1661505550146103,
        -0.23055528104305267,
        -0.08754976093769073,
        0.16752669215202332,
        0.24235503375530243,
        0.11977077275514603,
        -0.032225050032138824,
        0.06366527825593948,
        0.041289567947387695,
        0.1169903352856636,
        -0.02148049883544445,
        0.14039787650108337,
        0.11361759155988693,
        0.1887192577123642,
        0.007117838133126497,
        -0.1082039326429367,
        -0.05536976084113121,
        -0.18615639209747314,
        -0.009426546283066273,
        0.018086839467287064,
        0.21633264422416687,
        0.10827218741178513,
        0.12730389833450317,
        0.18954399228096008,
        0.030859611928462982,
        0.047511614859104156,
        0.11303514987230301,
        0.09704812616109848,
        -0.1263616681098938,
        0.0968284085392952,
        0.14558739960193634,
        0.14171573519706726,
        -0.10485932976007462,
        0.17441746592521667,
        -0.010677545331418514,
        -0.006505762226879597,
        -0.010393940843641758,
        0.037069376558065414,
        -0.03190265968441963,
        0.05655569210648537,
        0.07782598584890366,
        0.10399751365184784,
        0.0018760919338092208,
        -0.1319955438375473,
        0.06682749092578888,
        0.27686962485313416,
        0.09860221296548843,
        -0.03302912414073944,
        -0.03674378991127014,
        0.14961740374565125,
        -0.1044049933552742,
        0.07406210899353027,
        -0.10385362058877945,
        -0.05751864239573479,
        -0.13897188007831573,
        -0.037358421832323074,
        0.1822327971458435,
        0.12846343219280243,
        -0.007015618961304426,
        0.04696929454803467,
        0.0008317026658914983,
        0.09592913091182709,
        -0.006187479943037033,
        0.0075461529195308685,
        0.11441635340452194,
        0.1845604032278061,
        0.013442537747323513,
        -0.029532762244343758,
        -0.03345009684562683,
        0.14733578264713287,
        0.10774834454059601,
        -0.16834993660449982,
        0.2583064138889313,
        0.01984480395913124,
        0.027963239699602127,
        0.19147446751594543,
        0.18915902078151703,
        -0.019861917942762375,
        -0.1060214564204216,
        -0.012414428405463696,
        -0.01043947134166956,
        -0.050747957080602646,
        0.03776238113641739,
        -0.10201407968997955,
        0.2044757902622223,
        0.0047038644552230835,
        -0.12779945135116577,
        -0.10695243626832962,
        0.22892484068870544,
        0.06117626279592514,
        -0.019070541486144066,
        0.02696974202990532,
        -0.10825500637292862,
        0.02777155116200447,
        -0.12449534982442856,
        -0.09990129619836807,
        -0.08415406197309494,
        0.017351718619465828,
        0.12716475129127502,
        -0.004439112730324268,
        0.026359466835856438,
        -0.03216634690761566,
        0.09077879786491394,
        0.010730506852269173,
        0.211068257689476,
        0.11692537367343903,
        0.18640722334384918,
        0.035199981182813644,
        0.02861624024808407,
        -0.16006848216056824,
        0.09879288822412491,
        -0.14792586863040924,
        0.20974759757518768,
        0.036261171102523804,
        0.07556220889091492,
        0.019200433045625687,
        0.18720780313014984,
        0.1973586082458496,
        0.062456969171762466,
        -0.015671713277697563,
        0.11095865070819855,
        0.03840860351920128,
        0.052503570914268494,
        0.2886175513267517,
        0.11804596334695816,
        0.23119573295116425,
        -0.1227170005440712,
        -0.13756594061851501,
        0.19170114398002625,
        0.04303862899541855,
        0.07243780046701431,
        0.009013047441840172,
        0.17178888618946075,
        0.0009069256484508514,
        0.051221832633018494,
        0.19593960046768188
      ],
      [
        -0.12183516472578049,
        -0.06818759441375732,
        -0.029991811141371727,
        -0.05998587608337402,
        -0.05917913094162941,
        0.07748045772314072,
        0.19500018656253815,
        -0.05553026869893074,
        -0.08163771033287048,
        -0.05591849982738495,
        -0.008104539476335049,
        0.008665502071380615,
        -0.09034367650747299,
        -0.003035377711057663,
        -0.09790646284818649,
        -0.026117660105228424,
        0.19826634228229523,
        -0.09916087239980698,
        -0.13415294885635376,
        -0.06174378842115402,
        0.25723201036453247,
        0.1513022929430008,
        0.0525093749165535,
        0.038225166499614716,
        -0.02680671587586403,
        -0.024917928501963615,
        0.0010548064019531012,
        -0.00014848230057395995,
        0.23281538486480713,
        0.1625165343284607,
        0.14976517856121063,
        -0.030560843646526337,
        -0.04444774612784386,
        0.023241743445396423,
        -0.11918889731168747,
        0.12457602471113205,
        -0.08400438725948334,
        0.18695664405822754,
        -0.03212805837392807,
        0.0548425018787384,
        0.13887399435043335,
        -0.030664388090372086,
        -0.015662286430597305,
        0.2697075307369232,
        -0.0628102570772171,
        -0.08544500172138214,
        0.020775185897946358,
        0.08631333708763123,
        0.21707622706890106,
        -0.08832775801420212,
        0.22463922202587128,
        -0.016482127830386162,
        -0.1341945081949234,
        -0.047429587692022324,
        0.003051081905141473,
        -0.004192975349724293,
        -0.12875139713287354,
        0.057383716106414795,
        -0.07516544312238693,
        -0.04925915226340294,
        -0.06206610053777695,
        -0.057839035987854004,
        0.2713487148284912,
        -0.0011320383055135608,
        -0.022356519475579262,
        -0.03086608089506626,
        0.11634108424186707,
        -0.049267567694187164,
        0.13266277313232422,
        -0.05935433879494667,
        0.014741363935172558,
        -0.042975813150405884,
        -0.03086596168577671,
        0.1361588090658188,
        0.15394116938114166,
        -0.0006503635086119175,
        0.029234034940600395,
        -0.03262487053871155,
        -0.07207566499710083,
        -0.06333695352077484,
        -0.08470681309700012,
        -0.1096598356962204,
        0.08264029771089554,
        0.037457723170518875,
        -0.051662661135196686,
        -0.022356249392032623,
        0.11075230687856674,
        -0.04298139736056328,
        -0.06484068930149078,
        0.13848653435707092,
        -0.023016490042209625,
        -0.06737495213747025,
        0.29565078020095825,
        0.15703728795051575,
        -0.00014844090037513524,
        -0.02635454200208187,
        -0.04739556461572647,
        0.024578841403126717,
        -0.12208588421344757,
        0.03504719212651253,
        -0.021501077339053154,
        0.19102445244789124,
        -0.08271471410989761,
        -0.05885994806885719,
        -0.05046392232179642,
        0.18402200937271118,
        0.012076671235263348,
        -0.0012464688625186682,
        -0.014369391836225986,
        -0.113257996737957,
        -0.02862335555255413,
        -0.11405851691961288,
        -0.08733324706554413,
        -0.061734892427921295,
        -0.026066048070788383,
        -0.06437930464744568,
        -0.027531465515494347,
        0.08427061885595322,
        0.038214944303035736,
        -0.05957517400383949,
        0.00921623781323433,
        0.1341276466846466,
        0.1861005276441574,
        0.18774448335170746,
        -0.02646840177476406,
        -0.02506294474005699,
        -0.07771675288677216,
        -0.03955458104610443,
        0.0369325689971447,
        0.18037165701389313,
        -0.007598901633173227,
        0.06321033090353012,
        0.07403521239757538,
        0.016878066584467888,
        0.1412174552679062,
        -0.00958775170147419,
        -0.01266008336097002,
        0.08756818622350693,
        0.03193242475390434,
        0.15925753116607666,
        0.2475275993347168,
        -0.07151742279529572,
        0.20095735788345337,
        -0.06441151350736618,
        -0.04952062666416168,
        0.16778218746185303,
        0.0074419197626411915,
        -0.00863744132220745,
        -0.014356549829244614,
        0.20412561297416687,
        0.004741474986076355,
        0.021257886663079262,
        0.26338183879852295
      ],
      [
        0.05067187547683716,
        -0.04434160143136978,
        0.13956092298030853,
        0.07675231248140335,
        0.16758328676223755,
        -0.141388401389122,
        0.07297171652317047,
        0.1251325011253357,
        0.11081009358167648,
        -0.1254662722349167,
        0.1987687647342682,
        -0.003549339948222041,
        -0.11737600713968277,
        0.027192778885364532,
        -0.049074556678533554,
        0.057550542056560516,
        0.28006115555763245,
        -0.11775457859039307,
        -0.19667641818523407,
        0.061606619507074356,
        0.17217783629894257,
        0.1619495451450348,
        0.018534323200583458,
        0.010151807218790054,
        0.04179661348462105,
        0.0719962790608406,
        0.19328777492046356,
        0.03695893660187721,
        0.14930231869220734,
        0.06189519912004471,
        0.1620536595582962,
        0.07356765121221542,
        -0.03094814345240593,
        -0.07546108961105347,
        -0.16089293360710144,
        0.1029781624674797,
        0.01140468567609787,
        0.1936187595129013,
        0.10070979595184326,
        0.0572461374104023,
        0.21108494699001312,
        0.11733854562044144,
        -0.009454079903662205,
        0.11602827161550522,
        -0.012833518907427788,
        -0.11231496930122375,
        0.0904441699385643,
        0.13233475387096405,
        0.09253805130720139,
        -0.17113791406154633,
        0.12406095862388611,
        0.04042734205722809,
        0.13886068761348724,
        -0.012640245258808136,
        0.05317315459251404,
        -0.015693048015236855,
        0.014136006124317646,
        0.11175408214330673,
        0.04897138103842735,
        0.014731400646269321,
        -0.13129191100597382,
        0.12345200031995773,
        0.18322429060935974,
        0.14599327743053436,
        -0.08076833933591843,
        -0.038357559591531754,
        0.10914035886526108,
        -0.14891254901885986,
        0.08445806056261063,
        -0.033972106873989105,
        -0.13609625399112701,
        -0.046677254140377045,
        -0.03874358907341957,
        0.2569476366043091,
        0.11666173487901688,
        0.03938795626163483,
        0.08105994760990143,
        -0.06265486031770706,
        0.07466888427734375,
        0.17571456730365753,
        0.08189713209867477,
        0.09638788551092148,
        0.14551059901714325,
        -0.006505602039396763,
        -0.004877288360148668,
        -0.08146420121192932,
        0.20505112409591675,
        0.07884079217910767,
        -0.17009952664375305,
        0.20456475019454956,
        0.044520843774080276,
        0.027485081925988197,
        0.09009230881929398,
        0.23213689029216766,
        0.037100907415151596,
        -0.17378096282482147,
        -0.012323148548603058,
        0.0338171161711216,
        -0.044048748910427094,
        -0.01820550113916397,
        -0.17784228920936584,
        0.19794899225234985,
        0.038727398961782455,
        -0.12441694736480713,
        -0.0631648451089859,
        0.17483973503112793,
        -0.030019588768482208,
        0.07848095148801804,
        -0.009962841868400574,
        0.06764640659093857,
        0.08031212538480759,
        -0.021576208993792534,
        -0.0502781942486763,
        0.05064048990607262,
        0.060631684958934784,
        0.130903422832489,
        0.049622125923633575,
        0.04906577989459038,
        0.015244148671627045,
        -0.016765547916293144,
        0.016661522909998894,
        0.20285411179065704,
        -0.03645021840929985,
        0.26377126574516296,
        0.11150015145540237,
        0.07753020524978638,
        -0.1298653930425644,
        0.12533216178417206,
        -0.16178931295871735,
        0.17976343631744385,
        -0.0040765502490103245,
        0.15203134715557098,
        -0.04612873122096062,
        0.09361955523490906,
        0.24707457423210144,
        0.05852090194821358,
        0.0216831061989069,
        0.12933561205863953,
        -0.0029824362136423588,
        0.09217993170022964,
        0.20145127177238464,
        0.02880680561065674,
        0.32552003860473633,
        -0.17344410717487335,
        -0.039040230214595795,
        0.19647563993930817,
        0.060761064291000366,
        0.11321847140789032,
        0.05651865527033806,
        0.1691218763589859,
        -0.026002706959843636,
        0.06952592730522156,
        0.19647003710269928
      ],
      [
        -0.01008085161447525,
        -0.14166627824306488,
        0.3697984218597412,
        -0.09888128936290741,
        0.26410385966300964,
        -0.36827829480171204,
        -0.21159161627292633,
        -0.3947069048881531,
        0.36453160643577576,
        -0.10303141176700592,
        0.1317400336265564,
        0.007725717965513468,
        0.3314570486545563,
        -0.06329330056905746,
        0.2098081409931183,
        -0.32507407665252686,
        -1.2950395345687866,
        0.16803918778896332,
        0.1712450385093689,
        0.11398077756166458,
        -0.0667802020907402,
        0.8324621319770813,
        0.09775292873382568,
        0.15134720504283905,
        -0.03830741345882416,
        0.04810943081974983,
        -0.18556444346904755,
        0.1280115842819214,
        0.7439847588539124,
        -0.06590357422828674,
        -1.0244783163070679,
        0.20098428428173065,
        -0.406948983669281,
        0.20282593369483948,
        0.21208243072032928,
        0.014506187289953232,
        0.13807596266269684,
        -0.9834579825401306,
        -0.045396044850349426,
        0.3768278956413269,
        0.010591419413685799,
        0.26770877838134766,
        0.013286924920976162,
        0.22404056787490845,
        0.30909478664398193,
        0.13822105526924133,
        -0.2929490804672241,
        0.08982595801353455,
        -0.22551995515823364,
        0.1556549072265625,
        0.2180967777967453,
        0.0165073424577713,
        -0.2921138405799866,
        0.19822998344898224,
        -0.01331445574760437,
        -0.06267570704221725,
        0.029499026015400887,
        -0.06224171817302704,
        -0.05738789215683937,
        0.08860993385314941,
        0.2637369930744171,
        -0.11143780499696732,
        -0.5649685263633728,
        -0.2321278154850006,
        0.11975283175706863,
        0.10368132591247559,
        -0.13382737338542938,
        0.21779172122478485,
        -0.31623977422714233,
        0.06406660377979279,
        0.11482862383127213,
        -0.2842990756034851,
        0.10898369550704956,
        -0.06755286455154419,
        0.3996177017688751,
        0.2736138701438904,
        -0.2568444609642029,
        0.3024274706840515,
        -0.30594655871391296,
        0.45879796147346497,
        -0.37361639738082886,
        -0.2815423905849457,
        1.009142279624939,
        -0.599851667881012,
        -0.085270956158638,
        0.11660842597484589,
        0.41190168261528015,
        0.22071649134159088,
        0.34821683168411255,
        0.8461140990257263,
        0.1341671198606491,
        0.1834721863269806,
        -0.093097023665905,
        -0.421088844537735,
        0.12328110635280609,
        0.1019296646118164,
        0.19774870574474335,
        0.45391416549682617,
        0.1762864589691162,
        -0.21420370042324066,
        0.1040402501821518,
        -0.36044639348983765,
        0.01072680577635765,
        0.1502767652273178,
        0.2747868299484253,
        0.8106390833854675,
        0.018383823335170746,
        0.26563626527786255,
        -0.014793572947382927,
        0.07179554551839828,
        -0.3317728042602539,
        0.21576957404613495,
        0.14926394820213318,
        0.11467808485031128,
        0.13688699901103973,
        -0.4882560670375824,
        0.13718169927597046,
        0.024920979514718056,
        0.1510397046804428,
        0.33453577756881714,
        -0.044225335121154785,
        -0.3484222888946533,
        0.04485112801194191,
        -0.07517798990011215,
        0.2597012221813202,
        0.04378896951675415,
        0.19569027423858643,
        0.25330331921577454,
        0.19479140639305115,
        -0.013311036862432957,
        0.01417685579508543,
        -0.17338573932647705,
        -0.021322621032595634,
        0.5101954936981201,
        0.007647428661584854,
        -0.05731551721692085,
        0.10881120711565018,
        0.08982593566179276,
        -0.004188780672848225,
        -0.20988044142723083,
        -0.3367728292942047,
        -0.05736923590302467,
        0.12741203606128693,
        0.3401581048965454,
        -0.40024468302726746,
        -1.006529450416565,
        -0.19622357189655304,
        -0.011240582913160324,
        0.19025827944278717,
        -0.32288703322410583,
        -0.2115934044122696,
        -0.25735318660736084,
        0.06564746797084808
      ],
      [
        0.20471902191638947,
        -0.09208985418081284,
        0.14056162536144257,
        -0.19666872918605804,
        -0.3301064074039459,
        0.29126814007759094,
        0.13523849844932556,
        0.3053751289844513,
        0.09420529007911682,
        -0.08971035480499268,
        0.07893551141023636,
        -0.25345566868782043,
        -0.13859893381595612,
        -0.02425265498459339,
        -0.43893900513648987,
        -0.14404208958148956,
        0.012551977299153805,
        -0.18967360258102417,
        0.17196737229824066,
        -0.16540710628032684,
        0.25564172863960266,
        0.16047953069210052,
        0.25124454498291016,
        0.1263912171125412,
        -0.13631021976470947,
        -0.02143455296754837,
        0.056026458740234375,
        -0.07843655347824097,
        0.19359323382377625,
        0.07259776443243027,
        0.31762513518333435,
        -0.199969083070755,
        0.14138759672641754,
        0.08671882003545761,
        0.005875309929251671,
        0.4004376530647278,
        0.1109313890337944,
        -0.009108181111514568,
        0.2360147386789322,
        -0.18619883060455322,
        -0.07523413747549057,
        0.05192532017827034,
        0.0011078708339482546,
        -0.04985194653272629,
        0.058096177875995636,
        0.10127323120832443,
        0.06749799102544785,
        0.08059203624725342,
        0.20652888715267181,
        -0.07399042695760727,
        0.004703160375356674,
        0.02985168807208538,
        -0.5112605690956116,
        -0.24375814199447632,
        0.0461515374481678,
        -0.018231818452477455,
        0.11652691662311554,
        0.27656272053718567,
        -0.09760381281375885,
        0.024040302261710167,
        0.05206473916769028,
        -0.0750899538397789,
        0.44470858573913574,
        0.06000382825732231,
        -0.0337064303457737,
        -0.1884758472442627,
        0.12081640213727951,
        -0.0992143303155899,
        0.13925647735595703,
        0.1750624179840088,
        0.09606458991765976,
        -0.03738211840391159,
        -0.18852709233760834,
        -0.14574547111988068,
        -0.018245572224259377,
        -0.22473251819610596,
        0.007674721535295248,
        -0.10718133300542831,
        -0.15718777477741241,
        -0.1369643658399582,
        0.014526955783367157,
        -0.15303730964660645,
        -0.18954619765281677,
        0.04847448691725731,
        -0.0035730935633182526,
        -0.03374404460191727,
        0.01644265092909336,
        0.20274458825588226,
        0.01225203089416027,
        0.15512648224830627,
        -0.026756012812256813,
        -0.05695248022675514,
        0.6155102849006653,
        -0.06431325525045395,
        -0.07698063552379608,
        0.17817793786525726,
        -0.24374040961265564,
        0.008774654008448124,
        -0.014196592383086681,
        0.028632257133722305,
        -0.19359293580055237,
        -0.35671842098236084,
        0.17734459042549133,
        0.05349249765276909,
        0.12105079740285873,
        0.2247355580329895,
        0.03399583324790001,
        -0.28558266162872314,
        0.1044744998216629,
        -0.34156572818756104,
        -0.15198250114917755,
        -0.026640046387910843,
        -0.3196293115615845,
        -0.16535896062850952,
        -0.020883653312921524,
        -0.045012153685092926,
        -0.01603231206536293,
        0.10132051259279251,
        0.12641558051109314,
        -0.2344256341457367,
        0.0055536325089633465,
        -0.3539392352104187,
        0.08521579951047897,
        -0.1733149290084839,
        0.04969096928834915,
        -0.014335156418383121,
        -0.0369013249874115,
        -0.09243195503950119,
        0.455921471118927,
        -0.18090897798538208,
        0.022855320945382118,
        0.21863923966884613,
        0.11422581970691681,
        0.4415929615497589,
        -0.053158413618803024,
        -0.057193949818611145,
        0.01099180243909359,
        0.07639731466770172,
        -0.03551100566983223,
        0.22208066284656525,
        -0.03991134092211723,
        -0.09809587150812149,
        -0.7775456309318542,
        -0.010134607553482056,
        0.15119801461696625,
        0.31457239389419556,
        0.19224296510219574,
        -0.22532327473163605,
        0.034867942333221436,
        -0.2496294230222702,
        0.028976742178201675,
        -0.002677387557923794,
        0.30475106835365295
      ],
      [
        0.000583325105253607,
        0.03425958380103111,
        0.0265077892690897,
        0.047390926629304886,
        0.13268394768238068,
        -0.18938198685646057,
        0.052673257887363434,
        0.15480555593967438,
        0.14047427475452423,
        -0.050679054111242294,
        0.22414611279964447,
        0.07093331217765808,
        -0.0817679762840271,
        0.04175981134176254,
        0.10770264267921448,
        0.07326687127351761,
        0.15738241374492645,
        -0.11163271963596344,
        -0.21910372376441956,
        -0.0714406818151474,
        0.07437556236982346,
        0.17387162148952484,
        0.08656337112188339,
        -0.017093081027269363,
        0.12432963401079178,
        0.018760213628411293,
        0.07549594342708588,
        -0.02372065931558609,
        0.2682170867919922,
        0.07507328689098358,
        0.10608632862567902,
        0.0225556418299675,
        -0.03597678244113922,
        -0.043019045144319534,
        -0.1260106861591339,
        -0.007562729995697737,
        0.05109041929244995,
        0.17242614924907684,
        0.09742417186498642,
        0.12210796773433685,
        0.13858312368392944,
        0.062053658068180084,
        -0.03442978486418724,
        0.14300182461738586,
        0.05471261590719223,
        -0.10897529125213623,
        0.023772966116666794,
        0.10037650167942047,
        0.19632156193256378,
        -0.07766195386648178,
        0.17576465010643005,
        -0.0019224743591621518,
        0.2244705855846405,
        -0.019864646717905998,
        0.015302155166864395,
        0.03300328925251961,
        0.08129012584686279,
        0.11379443854093552,
        0.05848203971982002,
        0.015294650569558144,
        -0.11455744504928589,
        0.18501710891723633,
        0.2333189994096756,
        0.09150052070617676,
        -0.02188360132277012,
        -0.02928481251001358,
        0.09974216669797897,
        -0.09026782214641571,
        -0.012217198498547077,
        -0.052677493542432785,
        -0.06545382738113403,
        -0.013014275580644608,
        -0.029286924749612808,
        0.22296354174613953,
        0.07614041864871979,
        0.0029079229570925236,
        0.0627131536602974,
        0.024566609412431717,
        0.11525024473667145,
        0.07224951684474945,
        0.0764554962515831,
        0.14358603954315186,
        0.09869898855686188,
        -0.0967399999499321,
        0.01556026004254818,
        -0.02188771218061447,
        0.026544339954853058,
        0.05347754433751106,
        -0.12949807941913605,
        0.1418277472257614,
        0.06613517552614212,
        0.06218225508928299,
        0.031326774507761,
        0.18553581833839417,
        -0.02371969446539879,
        -0.07387269288301468,
        -0.019866278395056725,
        0.1302555501461029,
        -0.023408936336636543,
        0.028857918456196785,
        -0.04766053333878517,
        0.15184278786182404,
        0.04195230081677437,
        -0.0823611319065094,
        -0.09756369888782501,
        0.14531907439231873,
        0.009182257577776909,
        0.0021967566572129726,
        0.0014879973605275154,
        -0.08502465486526489,
        0.07270212471485138,
        -0.09311524778604507,
        -0.10006028413772583,
        -0.07150023430585861,
        0.049255263060331345,
        0.13874417543411255,
        0.04440784826874733,
        0.04109349474310875,
        -0.017095550894737244,
        0.01991969160735607,
        -0.019969122484326363,
        0.14830411970615387,
        0.02133426070213318,
        0.20625489950180054,
        0.09145775437355042,
        0.027669988572597504,
        -0.11839145421981812,
        0.037401314824819565,
        -0.09179236739873886,
        0.21548257768154144,
        -0.032308533787727356,
        0.07105103880167007,
        -0.019348321482539177,
        0.02355049178004265,
        0.1383175104856491,
        0.0754716768860817,
        -0.0030987709760665894,
        0.11101578176021576,
        0.00909783598035574,
        -0.03369593620300293,
        0.25830256938934326,
        0.07486195862293243,
        0.26791393756866455,
        -0.10714862495660782,
        -0.05543055757880211,
        0.12232804298400879,
        0.07551578432321548,
        0.07434817403554916,
        0.03775888308882713,
        0.06392388790845871,
        -0.017002735286951065,
        0.05269787833094597,
        0.20905056595802307
      ],
      [
        0.06709043681621552,
        0.04301070049405098,
        -0.1309484839439392,
        0.06161412224173546,
        -0.013090290129184723,
        -0.12515035271644592,
        0.07562664151191711,
        0.12614968419075012,
        0.12587548792362213,
        -0.01182086393237114,
        0.19372472167015076,
        0.03288646414875984,
        -0.09768381714820862,
        0.07810623943805695,
        0.24552269279956818,
        0.0038856228347867727,
        0.2109682410955429,
        -0.13332238793373108,
        -0.2025262862443924,
        -0.07340887188911438,
        0.2070034146308899,
        0.1601911336183548,
        0.16673067212104797,
        -0.028219198808073997,
        0.11430669575929642,
        0.024431994184851646,
        -0.020760677754878998,
        -0.006263923831284046,
        0.2866569757461548,
        0.08248744904994965,
        0.14981862902641296,
        0.1010768711566925,
        0.16446952521800995,
        -0.02409028634428978,
        -0.15649037063121796,
        0.010593187995254993,
        -0.0210771095007658,
        0.17522606253623962,
        0.10312582552433014,
        0.14506860077381134,
        0.14035721123218536,
        0.05751854181289673,
        0.0020747631788253784,
        0.12269524484872818,
        0.11099748313426971,
        -0.11607085913419724,
        0.01012217067182064,
        0.13650617003440857,
        0.20413923263549805,
        -0.09054362773895264,
        0.12253735959529877,
        -0.030050739645957947,
        0.14556948840618134,
        -0.018199756741523743,
        -0.0011994943488389254,
        0.09429562091827393,
        0.15958522260189056,
        0.15495812892913818,
        0.0800618901848793,
        0.011858622543513775,
        -0.12861867249011993,
        0.1445278823375702,
        0.30859389901161194,
        -0.024542909115552902,
        -0.023922208696603775,
        -0.022062242031097412,
        0.12549608945846558,
        -0.10785281658172607,
        0.09341281652450562,
        -0.18333344161510468,
        -0.08435624092817307,
        -0.01743168942630291,
        -0.022063329815864563,
        0.10162384063005447,
        0.11959407478570938,
        0.029868939891457558,
        0.049077048897743225,
        0.0633169412612915,
        0.09684086591005325,
        -0.09698353707790375,
        0.07355505973100662,
        0.11408613622188568,
        0.13208021223545074,
        0.0562625527381897,
        0.013057136908173561,
        -0.02531374804675579,
        0.0883544385433197,
        0.08342484384775162,
        -0.15429237484931946,
        0.18519575893878937,
        0.047526296228170395,
        0.029254605993628502,
        0.24870780110359192,
        0.153842955827713,
        -0.006249801255762577,
        -0.10105346143245697,
        -0.01820119097828865,
        0.08801595121622086,
        0.033489689230918884,
        -0.006266160402446985,
        -0.02902189828455448,
        0.18711736798286438,
        0.050419021397829056,
        -0.08622869849205017,
        -0.12424638122320175,
        0.17179514467716217,
        -0.010146512649953365,
        -0.027240924537181854,
        0.01093316450715065,
        -0.0960906594991684,
        0.0023321975022554398,
        -0.10856759548187256,
        -0.10352959483861923,
        -0.0725274309515953,
        0.06326143443584442,
        0.0968279168009758,
        0.03315078839659691,
        -0.015708554536104202,
        -0.02821909449994564,
        -0.02812504582107067,
        -0.03763512149453163,
        0.11141597479581833,
        0.07296029478311539,
        0.14089374244213104,
        0.009886476211249828,
        0.0029725851491093636,
        -0.11516938358545303,
        0.0011710081016644835,
        -0.11222124844789505,
        0.19110806286334991,
        -0.02835286781191826,
        0.05623530596494675,
        0.0013563280226662755,
        0.12518846988677979,
        0.1605089157819748,
        0.09048512578010559,
        -0.003986411262303591,
        0.11888861656188965,
        0.06847919523715973,
        0.11440906673669815,
        0.3284890651702881,
        0.08541195094585419,
        0.1500924825668335,
        -0.12100030481815338,
        0.15294437110424042,
        0.12539012730121613,
        0.14818528294563293,
        0.06195704638957977,
        0.03609444200992584,
        0.025642307475209236,
        0.007810198701918125,
        0.015053922310471535,
        0.24341623485088348
      ],
      [
        0.022104017436504364,
        -0.004187296610325575,
        0.1037524864077568,
        0.10835183411836624,
        0.1701696217060089,
        -0.15409165620803833,
        0.029703514650464058,
        0.11889945715665817,
        0.18888205289840698,
        -0.174762561917305,
        0.16570773720741272,
        -0.003930759150534868,
        0.025980770587921143,
        -0.04211690276861191,
        -0.06606646627187729,
        0.10257824510335922,
        0.302663654088974,
        -0.128646120429039,
        -0.18372252583503723,
        -0.13725519180297852,
        0.10627815127372742,
        0.1741480529308319,
        0.023882150650024414,
        -0.08470369875431061,
        0.08182689547538757,
        0.04013938456773758,
        0.13456293940544128,
        -0.036652542650699615,
        0.1799921840429306,
        0.026614418253302574,
        0.16252917051315308,
        0.024777837097644806,
        -0.11828877776861191,
        -0.06919511407613754,
        -0.15753254294395447,
        -0.01349624339491129,
        0.009056835435330868,
        0.22945748269557953,
        0.11135845631361008,
        0.09227275103330612,
        0.29668736457824707,
        0.03679652884602547,
        -0.008239269256591797,
        0.08990336209535599,
        0.026608817279338837,
        -0.0983942449092865,
        0.04492895305156708,
        0.10319127887487411,
        0.08857854455709457,
        0.022876786068081856,
        0.10805649310350418,
        0.014959153719246387,
        0.19841472804546356,
        -0.10367422550916672,
        0.02321705035865307,
        -0.05403804033994675,
        0.000802797672804445,
        0.10832326859235764,
        0.07713132351636887,
        0.007811833173036575,
        -0.11871898174285889,
        0.1260451078414917,
        0.25136488676071167,
        0.16685301065444946,
        -0.044431984424591064,
        -0.07620649039745331,
        0.10677032172679901,
        -0.11875063180923462,
        -0.04406018927693367,
        -0.0670008659362793,
        -0.041086483746767044,
        -0.06672973930835724,
        -0.07654015719890594,
        0.242497056722641,
        0.0328274630010128,
        0.003094453364610672,
        0.023254547268152237,
        -0.02861853875219822,
        0.14970889687538147,
        0.07662875205278397,
        -0.07472140341997147,
        0.18332719802856445,
        0.16479314863681793,
        0.09675122052431107,
        -0.06451829522848129,
        -0.04417317733168602,
        0.16006575524806976,
        0.06503023207187653,
        -0.07316610962152481,
        0.23578353226184845,
        0.016397560015320778,
        0.0540575310587883,
        0.16339902579784393,
        0.2444310039281845,
        -0.043385639786720276,
        -0.1722191721200943,
        -0.10365527123212814,
        0.096909299492836,
        0.012306023389101028,
        -0.04772617667913437,
        -0.00901840254664421,
        0.2260282337665558,
        0.0097854845225811,
        -0.08961569517850876,
        -0.09581591188907623,
        0.19094011187553406,
        0.04014550894498825,
        -0.028901997953653336,
        -0.04765012860298157,
        -0.1598484069108963,
        0.1125301718711853,
        -0.2279466688632965,
        -0.07371363043785095,
        -0.13788284361362457,
        0.02340259589254856,
        0.1513436883687973,
        0.016875648871064186,
        -0.018746813759207726,
        -0.08237013965845108,
        0.11480598896741867,
        0.0021830133628100157,
        0.22367581725120544,
        0.0057581281289458275,
        0.27230724692344666,
        0.020869435742497444,
        0.06706378608942032,
        -0.1963493674993515,
        0.08337171375751495,
        -0.1660739928483963,
        0.21239544451236725,
        -0.04483296722173691,
        0.05263901501893997,
        0.01520280260592699,
        0.018204962834715843,
        0.23846913874149323,
        0.03312354162335396,
        -0.005288554821163416,
        0.11092529445886612,
        0.037276022136211395,
        0.16961722075939178,
        0.21071414649486542,
        0.05232638120651245,
        0.31526443362236023,
        -0.16755785048007965,
        -0.12455011904239655,
        0.22199150919914246,
        0.07437588274478912,
        0.09027804434299469,
        0.016189275309443474,
        0.12889809906482697,
        -0.02991708554327488,
        0.020389622077345848,
        0.19657175242900848
      ],
      [
        0.033166248351335526,
        0.04518383741378784,
        0.07345817983150482,
        0.013808387331664562,
        0.08894442021846771,
        -0.19064560532569885,
        0.029206201434135437,
        0.12286188453435898,
        0.05758883059024811,
        -0.024578196927905083,
        0.1553674340248108,
        -0.034159593284130096,
        -0.0636482983827591,
        0.029960332438349724,
        0.04654639586806297,
        0.08824987709522247,
        0.1410721391439438,
        -0.07194685935974121,
        -0.12287446111440659,
        -0.04613411799073219,
        0.07959404587745667,
        0.11596939712762833,
        0.02326858974993229,
        -0.01898220367729664,
        0.04063539206981659,
        0.044536810368299484,
        0.10235688090324402,
        -0.024477895349264145,
        0.10209135711193085,
        0.06629182398319244,
        0.11441614478826523,
        0.05539044737815857,
        0.019946621730923653,
        -0.029565725475549698,
        -0.06925556808710098,
        -0.011611356399953365,
        -0.038246531039476395,
        0.10461287945508957,
        0.08226005733013153,
        0.006554948166012764,
        0.11482780426740646,
        0.05456950515508652,
        0.012135959230363369,
        0.047576528042554855,
        0.05252853408455849,
        -0.08615763485431671,
        0.07954943180084229,
        0.0861336961388588,
        0.08829092979431152,
        -0.049246061593294144,
        0.0650879442691803,
        0.02468721941113472,
        0.10671538859605789,
        -0.046370021998882294,
        -0.03974147140979767,
        0.04127328842878342,
        0.0725974515080452,
        0.01714739017188549,
        0.04458379000425339,
        0.0007062295917421579,
        -0.06828127056360245,
        0.08944927901029587,
        0.166005477309227,
        0.09388810396194458,
        -0.024054240435361862,
        -0.03088182397186756,
        0.06607349216938019,
        -0.05614474043250084,
        -0.01755043864250183,
        -0.04530272260308266,
        -0.053122326731681824,
        -0.024733955040574074,
        -0.030950011685490608,
        0.12983494997024536,
        0.11462447792291641,
        0.0502149872481823,
        0.06237252429127693,
        0.022776417434215546,
        0.0802094116806984,
        0.11938253790140152,
        0.0778965950012207,
        0.024031659588217735,
        0.1409270465373993,
        0.011626438237726688,
        0.015456895343959332,
        -0.02384605072438717,
        0.0821671113371849,
        0.05644030496478081,
        -0.09189128130674362,
        0.11344615370035172,
        0.029401108622550964,
        0.02401242032647133,
        0.069344662129879,
        0.15088041126728058,
        -0.024478724226355553,
        -0.06201430782675743,
        -0.046370282769203186,
        0.012741293758153915,
        0.004498909693211317,
        -0.04594073072075844,
        -0.03796212375164032,
        0.11151447892189026,
        0.060092635452747345,
        -0.07089897245168686,
        -0.04638894647359848,
        0.13088664412498474,
        0.005212257616221905,
        0.0532197467982769,
        -0.030366411432623863,
        -0.06305449455976486,
        0.11260632425546646,
        -0.06369444727897644,
        -0.05754323676228523,
        -0.04613673686981201,
        0.046975456178188324,
        0.027058744803071022,
        0.05057932063937187,
        0.054378487169742584,
        -0.01898202858865261,
        0.027884116396307945,
        -0.0497882142663002,
        0.12159267067909241,
        -0.0334695428609848,
        0.09059347212314606,
        0.0472453236579895,
        0.04766872897744179,
        -0.07377946376800537,
        0.04698842018842697,
        -0.0843745619058609,
        0.07994779944419861,
        0.035053882747888565,
        0.05764640495181084,
        -0.02624129131436348,
        0.10498755425214767,
        0.12492398172616959,
        0.06097083538770676,
        0.0070075178518891335,
        0.08946385234594345,
        -0.021267246454954147,
        0.024419104680418968,
        0.14810298383235931,
        0.028631968423724174,
        0.1327064037322998,
        -0.08745061606168747,
        0.015762517228722572,
        0.1011805385351181,
        0.061603154987096786,
        0.07340729236602783,
        -0.013829032890498638,
        0.07313086837530136,
        -0.04694600775837898,
        0.06292068213224411,
        0.11426520347595215
      ],
      [
        0.04208666458725929,
        0.10011174529790878,
        -0.04799005389213562,
        0.007516126614063978,
        -0.0234568789601326,
        -0.07483090460300446,
        0.18343348801136017,
        0.05804583802819252,
        0.08040696382522583,
        0.0033562735188752413,
        0.16741842031478882,
        0.01935425214469433,
        -0.08378487080335617,
        0.04415031522512436,
        0.11492443829774857,
        -0.006945835892111063,
        0.1007104143500328,
        -0.11225326359272003,
        -0.20727920532226562,
        -0.05437164381146431,
        0.1574660986661911,
        0.1957966536283493,
        0.1322767287492752,
        -0.018374763429164886,
        -0.004203452728688717,
        0.012817386537790298,
        0.030882850289344788,
        -0.017060184851288795,
        0.10871176421642303,
        0.14118091762065887,
        0.14301332831382751,
        0.06890543550252914,
        0.13904915750026703,
        -0.03016689419746399,
        -0.12653973698616028,
        -0.004796048626303673,
        0.03333427384495735,
        0.16789713501930237,
        0.10754960775375366,
        0.0659954845905304,
        0.11304112523794174,
        0.0824858695268631,
        0.006626039743423462,
        0.031466178596019745,
        0.1405571550130844,
        -0.11738785356283188,
        0.0467236265540123,
        0.12344297021627426,
        0.03964190185070038,
        -0.07797759026288986,
        0.08471671491861343,
        0.0056577580980956554,
        -0.05705629661679268,
        -0.025826774537563324,
        -0.010900047607719898,
        0.057024840265512466,
        0.050809651613235474,
        0.16995324194431305,
        0.11159847676753998,
        -0.010705995373427868,
        -0.1176057681441307,
        0.11361216753721237,
        0.2827526032924652,
        0.0019840567838400602,
        -0.022878268733620644,
        -0.022176992148160934,
        0.13292519748210907,
        -0.08619172126054764,
